16 128
7 0.0028435849 -0.0011941656 -0.0011815557 0.0016303156 -0.0019670585 -0.0020839355 -0.002671762 -0.002729323 0.002587347 0.001828456 0.00056555273 -0.0037939062 -0.0004260558 0.0009722033 0.0033932466 -0.0012585033 0.003220061 -0.0024769502 0.0025281326 0.0028687667 0.0023481264 0.00067865953 -0.0007356189 -0.003583206 1.140734e-05 0.0017265208 -0.0014853721 0.0005911522 -0.0010733529 1.1674639e-05 0.00242668 2.238909e-05 0.0024513702 0.0036103502 -0.0008117222 0.0011063721 -0.00390431 -0.0009914665 0.0030593358 0.0019851741 -0.0035059678 0.000772002 -0.0008284867 -0.00028635515 -0.0011372919 -0.0021840786 -0.0031458978 -0.003321586 0.0026645772 0.0034938713 0.0032412491 0.0013157437 0.001853503 0.0036619457 0.0025428806 -0.0016319286 -0.00042800812 -0.0023501995 0.0027814277 0.0031075783 0.0033257238 -0.0024447169 -0.0038916834 -0.0004197851 0.0022862225 0.0016102741 0.0010570686 0.0011546778 0.0031032602 0.0036996894 0.0018888507 0.001752624 -3.0158317e-05 -4.8023594e-05 -0.0016622875 0.00088993297 -0.0007966634 0.0036558514 0.003644044 -0.003620747 -0.00035251884 0.0013724824 -0.0034067323 -0.0037352182 -0.00228182 0.0037941562 -0.0030470379 0.00047485193 -0.0024563784 0.0024284886 -0.0038430286 0.002461877 0.00067932 0.0038317007 0.0014874149 -0.00021186603 -0.0015819926 0.0016062959 -0.00064779853 -0.0019542673 0.001363583 0.00015504318 0.0029129342 -0.0005283054 -0.0015195278 -0.0031885453 -0.0025989409 0.0018772136 -0.002134347 -0.0012735864 0.0035385042 -0.002228269 0.0019111718 0.0012161394 -0.0025273282 0.0034934424 -0.003795824 -0.00042133397 0.0013519606 -0.002708813 -0.00068857666 -0.00038975183 0.0028253687 -0.0027815183 -8.9861634e-05 0.003868685 0.0012253509 -0.0019720253
15 0.0015967946 0.0022035742 0.0037954957 0.0024402176 0.0021610963 0.00016203489 -0.0008852021 0.0038992623 0.0015875829 -0.0005815654 0.0034505178 0.0028101646 -0.0013347091 0.00045264492 0.0020641824 0.000108710556 0.003901342 -0.0034355242 0.0014669514 -0.002403672 0.0026702858 0.0017838274 0.0009340994 -0.0036792126 0.0027303142 -0.003231448 0.0014778437 0.0019501896 0.0012811627 0.0016955183 -0.0010162359 -0.0019807257 0.0008189635 0.001113223 -0.002775097 -0.0029134532 0.0037273625 -0.00032613592 -0.0014769016 -0.0017476482 -0.0028086596 0.003289884 -0.002982767 0.0029009546 0.0024552736 -0.0036145921 -0.0008402718 0.0017178464 -0.0038872603 -0.0007719566 -0.0033201638 -0.0032500117 0.003506433 -0.0012536236 -0.0020729438 0.0028799407 0.0018246374 0.0014056485 -0.0036852595 -0.0005376048 0.00019155782 -0.0038181916 0.0017143802 -0.0014159856 -0.0005885181 0.0026907583 0.0032445048 -0.0008002943 0.0009447058 0.0037287339 0.0035602048 -0.00054337905 0.0025479656 0.0006165589 0.00056914764 -0.00034722438 0.0033434406 0.0016848306 -0.0012181764 -0.002254128 0.002192463 -0.0021099946 -0.0018073155 -0.0014527326 0.0036748212 -0.0014274541 -0.0033615748 0.0003901946 0.0017755307 -0.0018368553 0.0014244539 -0.0023770218 -0.0015859662 -9.429721e-06 -0.00056748977 0.0010665386 0.0033973057 -0.0010552047 0.0025350987 0.0038960648 -0.001255643 0.0025927983 -0.0005232877 0.00087141304 -0.002909439 -0.0030979344 -0.0015973934 0.0012015143 0.00019286564 -0.0030674613 0.0030736888 -0.0012166195 0.0015652402 -0.0037895206 -0.0022498546 0.0019987505 -0.0021182667 -0.0038738651 0.0032537088 -0.0007362782 -0.0018023684 0.0002486095 -0.00059163163 -0.002117817 -0.00019260903 0.0013849239 -0.0023852806 0.002913329
0 -0.0024843467 0.0011181245 0.00273896 0.0028345303 -0.001210732 0.0016681467 4.1002328e-05 -2.9549108e-05 -0.0032043576 0.00081917807 0.0037273287 -0.0022256798 -0.0016322288 -0.0024195076 -0.0036074999 0.00012445527 0.00042076444 -0.0023204654 0.0034499124 -0.0015044672 0.002850221 0.0030074765 -0.0038396558 -0.0026430439 -0.003701392 0.0016548913 0.0018195267 -0.00065532734 0.0011136639 -0.00014782583 0.00088148215 -0.00035226045 -0.0018940278 0.0035423988 -0.0019425898 -0.003806171 0.0019101973 0.00024098408 0.0004584345 0.0021615294 -0.0030143387 0.0005440133 0.0015882737 -0.0034178728 0.0028455104 -0.001597184 0.0037266673 -0.0002527828 0.00023884607 -0.0024046965 -0.0007478096 0.0036937783 -0.002579652 0.0010509371 -0.0008001025 0.001263093 -0.00019811916 0.0011755386 0.0025264316 0.0015668136 0.00082284445 0.00026036514 -0.0025507247 -0.00092200644 -0.0022773533 0.00010317083 -0.0002749236 0.0016645931 0.0037180844 -0.0029617904 0.0006536795 -0.0018428378 0.0031796726 0.002919498 0.0029333613 -0.002835112 -0.001389961 -0.0026967302 0.0012781284 -0.002117742 -0.0014183322 0.0016427549 0.0020271 -0.00082204805 0.0013621917 0.0026876936 0.0030615292 -0.0036719805 0.0027558417 -0.0016294179 -0.003736559 -0.0025487915 0.0013091983 0.0005714042 0.001926687 0.00012178371 0.003242348 -0.0011024387 0.00065709965 0.001764246 -9.2392165e-06 -0.0035295482 0.0014687439 0.0016444855 0.0035182405 -0.003283277 -0.002949471 -0.003173852 -0.003866789 0.0035115143 -0.00072352507 -0.003838639 -0.00246149 -0.002898139 -0.0035721925 0.0032880914 0.002556488 -0.003796303 0.0025509272 0.0024712894 -0.0035208648 -0.0013842998 -0.0012759882 0.0028875298 0.0028316574 -0.0004469257 0.0008972832 -0.0021785083
3 0.0023563649 0.0028187917 -0.0025569361 0.0034257623 -0.0001393548 0.00096280326 0.0015373115 -0.0011094451 -0.0020980425 -0.0012274364 -0.0033178604 -0.0035523712 -0.0012959127 0.00044138066 0.0022385004 0.0035698311 0.0037436823 0.0015237741 0.0015393363 0.0032664412 -0.0007104 -0.0013051071 -0.0020690833 -0.0038783276 -0.0016643981 -0.0015417563 -1.3413535e-05 -0.002402443 -0.0025355453 3.0939413e-05 0.0010050337 -0.0008125714 -0.0029895103 0.0029707171 -0.0014545742 0.0015153758 -0.0036669245 0.0015445254 0.0019036412 -0.003429315 -0.00040691826 -0.0017138668 -0.0024321885 -0.00021756293 -0.0002316027 -0.0008399287 -0.0017379903 0.002994904 0.0024207553 -0.0003266579 -0.0010428426 0.0013543969 0.0032824345 -0.00096550974 0.0025195624 0.0023189012 -0.0028284872 -0.00010686649 -0.001408326 0.0018734221 -0.0032086542 0.0020518084 -0.0004245707 0.0014531645 -0.002496508 -0.0024198422 0.0008137196 0.0007421009 -0.0025670852 0.0013425164 0.0015215483 0.00072211045 -0.0038995994 -0.0009022392 -0.0011860767 -0.0019459762 -0.0027437068 0.0019601441 -0.00071207335 0.0030625225 -0.0018252746 0.0014200493 -0.0034602277 0.0026365486 0.0016814204 8.323193e-05 -0.000315541 -0.00034119748 0.0006625987 0.00027254567 -0.0033223385 0.00080277445 0.0014140526 0.0020481362 -0.0022654678 -0.001212741 -0.002325165 -0.0029243166 0.0020240203 0.0032017126 -0.00089812145 -0.0036389923 -0.0025115216 -0.003841687 -0.00019497951 -0.0009790545 0.0026291674 -0.0017787595 0.0034395712 0.0007789768 -0.0018859307 -0.0029324996 0.00023062277 -0.0011898763 0.00067270023 0.0015172367 0.0013949889 0.0027763708 0.0020004392 -0.0008026203 -0.0018374234 0.0008292141 -0.0018292427 -0.0028717523 -0.003475425 0.0030071798 0.0008895609 -0.00011681674
6 0.00064352516 -0.0032920912 0.0012350711 -0.00014233643 0.00065013877 -0.0024901482 -0.0022056927 0.0016091353 0.0026292314 0.0036395101 0.00026379953 0.00046219258 -0.0028320581 -0.0025132715 -0.0027541076 -0.00025016916 0.003445285 -0.0029255152 -0.00048711718 -0.0033742106 0.0028456035 -0.0031036895 -0.0014869896 -0.0020360337 0.00244501 0.0035269575 0.002894371 -0.0004995534 0.0002314685 -0.0023080097 0.0031693021 -0.00023627827 0.0006371853 -0.00021140224 0.0012710585 0.0015521594 -0.0026966054 0.0028726233 -0.0026049397 0.0021969322 -0.00012469845 0.001033274 0.00278738 0.0036047366 -0.0015756191 -0.0017965381 -0.0028298849 0.0032925836 0.002345179 -0.0026419351 0.0007168702 -0.00032829875 0.001939381 0.0026380427 -0.0038675892 0.00025967098 0.0035960232 -0.0013707032 -0.0007306012 0.003833466 0.0014356049 0.0023175264 0.00047552766 -0.001982955 0.0016890792 0.0024384637 -0.003097905 0.0038550748 0.0029413658 0.0004597553 0.00059324625 -0.002633186 0.0031427767 0.0034152477 0.0021449376 -0.0028936784 -0.0014498227 -0.0010797654 -0.00089486607 -0.0032544734 -0.0037178055 -0.00094948604 0.003484353 0.0024842648 -0.0016030624 0.003328746 -0.0019250218 0.0031980025 0.0028257663 0.0016009908 -0.0012836126 0.0016860974 -0.0035085608 0.0005578505 -0.000593896 0.0035558583 0.0012032408 -0.0024115888 -0.0035950188 -0.0038182687 -0.0034070169 -0.001148393 0.0017267052 -0.0017501367 0.0013107912 0.002976772 0.001944385 0.00227364 -0.0033272551 -0.00033336945 -0.0010995609 0.0011719647 -0.0031607433 -0.0013996634 0.0033686857 0.003400305 0.003437608 -0.00031372838 -0.002554204 -0.002009111 -0.001796432 -0.0012310529 -0.003009896 0.0018430696 -0.0015233144 -0.0026391756 -0.001340828 0.0022229783
11 0.0017934742 0.0008661302 0.0015011296 -0.002041404 -0.002768297 -0.0029802553 -0.003341904 0.0018390338 -0.0025389683 -0.002096048 0.0024303247 0.0014370678 0.00014787725 -0.0029600053 0.0008923833 0.0011378415 -0.0013284497 0.002899094 0.0021750208 -0.00085634546 0.0030568147 -0.00039347415 0.0032323136 -0.0007364044 0.0031671007 -0.0010059968 0.0030283646 -0.0024476072 -0.0030733831 -0.0024038497 0.003860893 0.0025295615 -0.0036220304 -0.0032872176 -0.00073671696 0.0027008457 0.0021574371 0.000990283 0.002613805 0.0013614459 0.002057222 0.002900306 -0.001008251 -0.0030506074 0.0017250904 0.0016189015 1.9831616e-06 0.00063606096 -0.0031695052 0.0022587085 -0.0020094388 0.0036426405 -7.903679e-05 0.0018818941 0.0020435855 -0.0038060525 -0.0017373258 0.0031193143 -0.0012550385 0.0028971434 -0.0009939863 0.0021260187 -0.0016541032 0.0035088605 0.003764524 0.0015688344 0.000525579 -0.0013944063 0.0006143076 0.0016007446 0.0001119974 0.0017399394 0.0030526223 -0.0019961041 0.0030764048 -0.00029574244 -0.0038384146 -0.0005304265 -0.0009260009 0.0012607039 -0.0036086189 -0.00323958 6.947563e-05 0.00070210814 -0.00044263416 0.0013364478 0.00029484136 0.0028240248 -0.001540327 -0.0032798375 0.00094022014 0.00016609537 0.0016638734 0.0011825485 0.0009281325 0.0018719672 -0.0006127913 -0.003180371 0.0002509236 -0.0037322475 -0.0023123708 -0.00043046326 0.0024837172 -0.0008911324 0.00068823906 -0.0036839796 0.0038911651 0.0037085828 0.0024505344 0.0018502573 0.00012589787 -0.00111042 -0.001011494 0.0036723376 -0.0031021219 0.002852834 -0.0031542997 0.00268247 0.00053754816 -0.0010457189 0.0005513561 -0.0015936891 0.0036916856 -0.0014805519 -0.0026590803 -0.003410969 -0.0033938515 -0.0032113867
2 0.0019036253 0.00015835834 -0.002526629 0.0025282418 0.0020499714 0.0009983417 -0.0030808835 -0.0016183119 -0.003193534 -0.0012388338 0.0012383318 -0.0023557527 -0.0022854477 -0.0027552566 0.0011422258 -0.002410231 0.00028357204 -0.0035962106 0.0007234344 0.0005551679 -0.00285353 -0.0021698277 0.00090024044 0.0026564724 0.002565083 0.003063747 -0.0033303818 -0.0016804598 -0.00024703497 -0.0010148049 -0.00084978587 -0.0038155355 0.00070236664 0.0018968413 0.000828981 0.0010062584 0.0031939044 0.0018001205 -0.003848122 -0.0014356135 -9.928873e-05 -0.0026169207 -0.0031055766 -0.003065837 -0.0016190173 0.0023288575 -0.0035653731 0.0033823869 -0.00024770538 -0.0013584287 -0.0024721313 0.0021385164 -0.00017079945 0.0029414445 -0.0017190861 0.0013506791 0.00012150271 -0.00074675 0.0021325005 -0.0017038934 -0.0035443536 -0.0025971879 0.002740164 -0.0010368726 -0.0032434626 0.0033589853 -0.0015368061 0.00365447 0.001560247 -0.0012147469 0.0021233167 0.0036181952 0.0023915218 -0.0036067206 0.0001873998 0.0015068562 0.0015814746 -0.00030693485 -0.0028983844 -0.0017323924 0.0007412589 0.0017200089 0.002308534 -0.0004974619 0.0014365532 -0.0018187995 0.0016284807 -0.0030517734 0.002370123 0.0029762755 0.0017886393 0.00076792727 0.0012215726 -0.0028082347 -0.0007000288 -0.00182823 0.00020348009 0.0001779193 0.003486248 -0.0021796057 -0.00061419257 -0.00018462956 0.00089363 0.0035003594 -0.0031897614 -0.003579063 -0.0012589887 0.0034949225 0.0005173988 -0.00261949 -0.0028402754 -0.0024239682 0.0022865164 -0.0024725008 0.00043465273 -0.003499231 0.0028854276 0.00010798501 0.0024716065 0.002416507 0.0018063745 0.0035932167 -0.0027084004 0.003871428 0.0032127856 0.00075498095 -0.0030693733 -0.0038385326
9 0.0020578736 0.00073160254 -0.0011692392 0.00092746166 0.001975783 0.0025091113 0.0029234292 0.0012727936 0.0015978506 -0.0017084063 0.0009972713 0.0037194742 0.0016860089 0.0035681033 -0.0005121121 0.002856082 0.0001589479 -0.0029466946 -0.003105483 -0.00078364206 0.00081290596 -0.00043493335 -0.003260903 -0.0002865506 0.0003896864 0.0007372259 -0.0025595662 -0.0028654225 0.0012194682 0.0016908973 0.00064625294 -0.0038498167 -0.0023376192 0.0013919572 0.001554786 -0.0027714917 0.0011754861 -0.00051252317 -0.0022670373 -0.0037450318 -0.0018178973 -0.0002333001 0.0037058734 -0.002329135 -0.00316621 0.0003087006 -0.0013598815 0.003648598 -0.0008939633 0.00080117537 0.0016711485 0.0036705292 -0.0023032946 -0.0008273473 0.0038482996 -0.0033107346 -0.0012027592 -0.00021549154 0.0024531393 0.0002279795 0.0013394911 -0.002084569 0.0007639393 0.0028396547 0.0025920474 -0.00037577352 0.0015218913 0.0020086165 0.0029529002 8.690126e-05 0.001778103 0.0029645567 -0.00016376616 0.0033788057 0.00046650783 0.00058378966 -0.0030162802 0.0015077172 -0.0021615657 0.0031806936 0.0035665967 0.0023047945 0.0019681938 -0.002205121 -0.00020577104 0.0031570906 -0.00014842824 0.0010127482 0.002310175 -0.0009388897 -0.0030946352 -0.0011710625 -0.0035076973 0.0025278523 -0.00014892912 0.0030297975 0.0034810877 -0.0020349466 0.0031112279 0.002927985 0.00018593475 -0.0022977802 -0.0038123901 0.002466823 0.001984743 0.0027027666 -0.0007486369 0.0027380076 -0.0002600157 0.0013274287 -0.0032589273 -0.0026049707 0.00258034 -0.0030556086 -0.00038284968 0.002657241 -0.00344356 0.003678783 0.00032811263 0.0035311403 0.002102416 0.0033540172 0.00019912829 -0.000565923 0.0006253986 0.0020016627 -0.0019403332 -0.003403047
8 0.0024465225 0.00093131384 -0.0015906778 0.0027786016 0.0020960926 0.0030497983 -0.00038504225 -0.0007858986 0.0035318837 -0.0019204584 0.0013106419 0.0020619694 -0.0012367696 0.0024306832 0.000910966 0.0017697385 -0.001039105 0.0019663933 0.0018939696 -0.0009294652 -0.0033256856 0.00018157075 0.00077274337 0.0026132583 0.0022847052 0.0011603492 -0.0010566092 -0.0008991136 0.0009441694 0.003010725 0.0013069087 0.0024093962 0.0014854812 0.0029493156 0.0025938903 0.0013564753 0.0027446314 -0.0018208062 -0.0021219174 0.0013429566 -0.0036688002 -0.002582115 -0.0016118878 -0.0013622104 0.0023911858 -0.0023667752 0.0022294456 0.002478419 -0.00015243304 -0.0022082224 0.0030243841 0.00013720589 -0.003388183 -0.0018030736 0.0034251735 0.0014945011 0.0006214055 -0.0021199065 -0.00074669195 0.0013556143 0.00039757098 -0.0010411917 -0.00019766692 -0.0030465252 -0.001859455 -0.0027267793 0.003393649 0.00052564265 -0.00069365033 0.0027765315 -0.0016964781 0.0020862722 -0.003646602 0.0027560221 0.0012612839 -0.001642214 0.0016799744 -0.0032856385 -0.00113825 0.0014021379 -0.003289342 -0.0031657063 -0.0009748096 -0.0018931081 -0.001108873 0.0023911847 -0.0005028731 -0.0011200913 -0.0023161946 0.0027937323 -0.00089316384 -0.002469874 0.0020362716 -0.0035947128 0.0032177437 -0.0022982047 -0.0034849197 0.000395907 -0.00049190817 0.0015914363 0.0011680595 0.0036805023 0.0028276357 -0.0022918887 -0.0012424935 2.4532037e-05 -0.0038501867 -0.0010315893 -0.0026477484 -0.002617653 -0.0023187043 -0.0032030013 -0.00029306184 0.0008827789 0.00021413197 -0.0017662745 0.001367521 0.0008293604 -6.53653e-05 -0.0009331597 -0.0035727997 0.0015850257 -0.0017247855 -0.0012403086 9.1986345e-05 -0.0022011844 -0.0012329702 -0.00049005396
5 0.0001047959 0.0037919292 -0.0022964834 -0.002543512 -0.0005956964 -0.0005889019 0.00068308035 -0.0007996436 0.0015475337 -0.0012952148 -0.0013627057 0.0014763703 -2.4611676e-05 0.003139767 0.0029946165 -0.00015151376 -0.00049899565 0.0034899272 0.0021949804 0.0021717695 -0.0029364782 -0.0019331911 0.0035509123 -0.0025876912 -0.00039954315 -0.0015423914 0.0026093659 0.0037692243 0.0034008122 -0.0012867819 0.00064019166 -0.0016277506 0.0010038256 0.00251113 -0.00046554062 -0.0017236021 -0.0017501703 -0.00015826456 -0.0030194616 -0.0036688389 -0.0016234574 -0.00035887395 0.0010601741 -0.002951879 -0.0037544575 -0.0014256121 0.0012855981 -0.0018208 0.00014416211 -0.0019808717 7.729387e-06 -0.0007912261 -0.0029767707 0.0020961326 -0.0027632776 0.0027707503 0.0032479917 0.0026769629 -0.001543141 -0.0009040221 -0.0017471951 0.0006030434 -0.0026102725 0.0031783285 4.8769372e-05 -0.0030124055 -0.002193633 0.00078254426 0.00216743 0.00036643102 -0.00012984125 -0.0023614538 -0.003118356 0.0016819286 -0.0020787106 0.0015020004 0.0006400489 0.0032483747 0.0020052588 -0.000692937 -0.002074474 -0.0036312125 0.00041609732 0.003369709 -0.003067163 0.0024521798 -0.0017316717 -0.0010708998 0.0026437792 0.00046569944 -0.0022727493 -0.001220875 -0.0017186167 -0.0026627004 -0.0012198653 -0.0033072566 -0.0036061823 0.0030950925 0.0032909098 0.00069679436 -0.00067735935 -0.0007102722 -0.0027498824 -0.0019917944 -0.00084588624 0.0011373569 -0.0007272813 -0.0034878065 -0.0016682678 0.0032373385 0.0036405686 0.0004823031 0.0031081685 9.214955e-05 0.002301276 0.0035559386 -0.0006524256 -0.00094798265 -0.0031895228 -0.0013061188 0.00067350187 -0.0019655132 0.0031457008 0.0037787666 -0.0018976982 -0.000274206 0.0005791287 0.0022453591
1 -0.0033856127 -4.411727e-05 0.0038343356 0.00085293833 -0.0012667329 -0.00090142887 -0.0019315195 0.0005297301 -0.00076094666 -0.0012447409 5.3232943e-05 3.1876556e-05 0.0017887468 -0.0033325418 0.0012641172 0.0012584632 0.0018921993 0.0007673975 0.00070664013 0.0037332112 0.0036427935 0.0034389226 0.0009901599 0.0005367085 -0.00040117977 0.0034904876 -0.00112957 0.0014266642 -0.0037885804 0.00044741938 0.0012704799 0.0020624015 -0.00053687376 -0.0030729102 0.0018240369 0.0020801157 -0.0013719208 0.0038912448 0.00025725816 -0.00026206492 -0.0036152457 -0.0001206349 0.0010182334 0.0037657877 0.0006292815 0.0018442796 0.0034698974 0.0012112807 0.0030392297 -0.00011245565 0.0035761634 0.0003824158 0.0016811873 -0.0037054054 -0.0023313705 -0.00070019433 -0.00021724348 0.0025847775 -0.00030494458 -0.00048077732 0.003694664 -0.0004205127 -0.0010391839 0.0019629304 -0.002049517 0.0012377376 -0.0010761593 -0.00207895 -0.0028443425 0.000861009 0.0033195838 -0.0027292573 -0.0015475726 0.00085904606 -0.0002925282 0.0031143194 0.0031586776 0.0007450242 0.002426657 -0.0012715949 0.0037673144 -9.444331e-05 0.0038735725 0.00091233914 0.0029668717 -3.3216587e-05 0.0017661776 -0.0002625416 -0.0005163419 0.002809262 -0.0012439596 0.00088131614 -3.9251046e-07 0.0036490702 -0.002899393 0.001077151 0.0021193102 0.0017483209 -0.0032285044 -0.0017199367 0.0006044314 0.0014170834 0.0016484412 0.0020448861 0.0013965499 -0.00016057021 0.0022237974 0.0038773406 -0.0005740326 -0.0030446828 0.00029770716 -0.0005734165 0.00028717789 -0.003171123 -0.0028313636 0.0007138354 -0.0012395891 0.0022115218 0.0022527284 0.0037886805 0.00094243046 -0.0015841031 0.0009609934 -0.00074300985 0.0007203513 -0.0022498597 -0.0009105943 0.0010769804
14 -0.0007439005 0.0007248148 0.0010113497 0.0038019838 -0.00044066488 -0.00058429816 -0.0006236311 -0.0037393207 -4.8647395e-05 -0.0024542883 0.0027314303 0.0013751634 0.003061537 0.00080493075 0.0017500867 -7.339666e-05 -0.0035269926 0.0019856242 0.00041420336 0.001918845 -0.0032551037 0.0024044618 -0.0005481013 0.0017175482 0.00037073164 0.0031451804 0.002488315 0.0011763553 -0.0022905243 -0.0022555152 0.000116970594 0.00015839416 0.001540744 -0.0016326596 0.00015193206 -0.0030698706 0.00078294834 0.0032041152 0.0021743372 0.00065351225 0.0030216721 -0.0025837165 -0.0028403646 -0.00038291907 0.002745177 -0.0007300868 0.0038565616 0.0015828802 -0.0006614336 -0.0036899182 -0.0015995937 0.0018614131 0.0036813025 0.0008859366 -0.0032675825 -0.0006369422 0.0021849747 0.0033374494 -0.001450862 -0.0013459852 -0.0009147123 -0.0018522611 -0.001532925 0.0018135181 -0.0036771493 -0.00046855066 0.0027867847 0.0013720455 -0.0036680158 0.0026859404 0.0007953953 -0.0005698026 -0.003603063 0.0016762163 0.0016247628 0.0022003287 0.0025561545 0.0015849584 -0.0026289253 0.00047388882 0.00384973 0.0021928037 -0.0016586274 0.0024625368 -0.002015368 0.0007997199 -0.0033721575 0.0013625501 0.0036368342 -0.00028036756 0.00055394985 0.00042114235 -0.003509828 0.002516927 0.00062817737 0.0025044547 -0.0031119871 -0.0008410354 0.00060064835 0.0030257101 0.0027701526 0.0026954373 0.0012381739 8.094388e-05 -0.0017645839 0.0006433679 0.0031498184 -0.003340782 0.0013203823 0.0028120005 0.0015769212 -0.0025461135 0.0017812245 0.0027127126 -0.00080557977 -0.0030768109 -0.003377559 0.001306422 -0.0021865363 -0.0020381724 0.0030434455 -0.0012964058 -0.003254542 -0.0030256633 -0.000801215 0.0021963413 0.0021200099 0.0012076114
13 0.00037171063 -0.0016151349 -0.0005777328 -0.0030215443 -0.002453432 -0.001047758 -0.0005763468 0.0037730476 0.0033133056 -0.0024183374 0.002061893 -0.001594415 0.0027704218 0.0031053086 -0.00019163577 7.03378e-05 -0.0030316736 0.0021409155 -0.0005122673 -0.0005369236 -0.0031240846 -0.0018129131 0.003221709 0.00328405 0.0020942139 0.0018518394 0.0029217093 0.0035991392 -0.0012241306 -0.001895128 -0.0005516052 -0.0034030539 -0.00092666835 0.00019300134 0.0025847326 -0.0028250536 0.0031285016 -0.00036715763 -0.0018136974 -0.0009058654 0.0006666367 -0.00031788478 -0.0012352865 -0.0024095734 0.0007194078 -0.0022463293 -0.002208639 0.0038819835 0.0031983503 0.0028579037 -0.0004924109 -0.00367005 -0.0025486723 0.0026357977 0.002035102 -0.0027653193 0.00057605276 -0.0002869606 0.0028756142 0.0032520704 -0.0034811057 -0.000993878 -0.0010083595 0.00033508486 -0.0024465236 -0.0011603701 -0.0019431985 0.0035248818 0.00092157186 0.00278256 -0.0031148738 -0.00088747137 -0.0029381255 0.001986904 0.002901223 0.0012598431 -0.0028764957 -0.0018337595 -0.0004144242 0.003434193 -0.0012965385 -0.003057456 0.0028096852 -0.0019810856 -0.001551172 0.0016927765 0.0011804535 0.000123192 -0.0012412324 0.002552299 0.0035676328 -0.00024472584 -0.0011214153 -0.0020330506 0.0032828928 0.003875928 0.0038390826 0.0002919337 -0.0024243332 0.0038355698 0.00010498495 -0.00082401093 -0.0020355438 -0.003440891 0.0022115302 -0.00025360857 -0.0032336253 -0.0017685209 -0.0038013756 0.0029015285 0.0004532866 -0.0019741533 0.0024005477 -0.0032761414 -3.8556005e-05 0.0019258154 -0.0028624593 0.00087213365 0.0027416318 -0.0019522673 0.0008147983 0.0032896865 0.0011828889 -0.0018552039 0.0014947588 -0.0034371903 -0.0025163502 -0.002258196
12 0.0027895349 -0.0031486794 0.0012181608 -0.00079885015 0.0029398361 -0.0006309138 0.00024486528 0.0032545202 -0.0018209014 0.0035699462 -0.0024453786 0.0017661856 -0.0033150383 0.003429518 0.0025818662 0.0016994379 -0.0030415882 -0.0015101248 0.002681456 -2.6754284e-05 -0.0034615493 -0.002059428 0.00014773523 -0.0030301698 0.0004987156 -0.00064029504 0.001237995 -8.0724276e-05 0.0033407821 0.0015304917 -0.001315277 -0.002871131 0.0013009593 0.0031261928 -0.0034486486 -0.0027599179 0.00080773624 0.00022369395 -0.0015455089 -0.0016167117 0.0014304541 0.00029082157 -0.0037940324 0.0024054036 0.0009871979 -0.0034374185 0.0016410087 -0.0038983522 4.530308e-05 0.0007340814 -0.003632319 -0.0007227841 0.0027515537 0.0011410879 -0.00014723206 0.001902805 0.0033167894 -0.0028339615 -0.0027090143 0.00032601418 -0.0024710335 0.0030584503 0.0022700634 0.00090550445 0.0015333879 0.0005464245 8.247853e-05 -0.0038861907 -0.0026245986 -0.0012708311 0.0010384376 -0.0019025268 0.0007986676 -0.0026786418 -0.002506873 -0.0030322387 -0.00028623838 -0.0002579965 0.001486575 0.001983029 -0.0021537251 0.0021362335 -0.0023704476 -0.002529606 0.00038342996 -0.0031191546 0.00012537475 -0.0018788747 -0.0011449904 0.0023560885 0.0005709059 -0.0025466138 0.0003833495 0.00092741183 -0.0033591627 0.0038042278 -0.0020235432 0.003326688 -0.0026128895 0.0034587 -0.0034775194 0.0011991247 0.0010090751 -0.0011446185 0.0035049056 -0.0008932958 0.0026976273 -0.0026164125 -0.002284243 0.0023690278 -0.0011480249 -0.0016570571 0.003536963 0.0018858544 0.0012033678 0.0023886494 -0.00042199533 -0.0006364054 0.003603812 -0.0037555012 -0.003429302 0.0011936966 -0.0037875848 0.002291597 -0.0034933884 0.00012141308 -0.0032185714 -0.0013047043
4 0.0037002345 -0.001068835 -0.0032238201 -0.0032252977 0.0014295473 0.001884133 0.0016325415 -0.0011114316 0.00043057653 -0.0033665292 0.0027078826 -6.0792467e-05 -0.001372436 -0.0016711414 -0.00029343885 0.0021395644 0.0013550993 0.0037549068 0.0003959956 -0.0026695998 -0.00043908553 0.003407377 0.0036155938 0.0017440001 -0.0004887589 0.00090610364 0.0022358464 0.002599488 0.0018501481 0.0018628938 0.0004218154 0.00012663989 -0.0026348368 0.0026758998 -0.0009106024 0.0022584395 -0.0015380204 0.0038218002 0.0017137122 0.0038500782 -0.0031146444 0.0021200061 -0.0004094787 -0.0026234055 -0.0021816178 0.00010404171 -0.0015449193 -0.00074478134 -0.0029906484 -0.0038642758 0.0012118549 -0.0005448175 -0.002556693 0.0018267555 0.0037403896 0.0035891302 0.001276777 -8.316026e-05 -0.00056988857 0.003137185 -0.0008639352 0.00076189847 0.0031879167 0.0030745752 -0.0021413355 0.0028786273 0.0011324635 0.003124406 0.0028280842 0.0004995689 0.0038242117 0.001703028 -0.0036387036 0.0037133698 -0.000249243 0.0027809453 -0.0027827076 -0.0019436416 -0.0027791068 -0.0036221894 -0.0011715018 0.0021538222 -0.0016277243 0.0035774508 0.0030143915 -0.00043532826 0.0023559663 -0.0014196426 0.0005279747 -0.0011759711 0.0038770868 0.0028846213 0.0035613957 -0.0020171767 -0.002650743 0.0033324575 0.0012107012 0.002677843 0.0017430413 0.0037452504 -0.0036042165 0.0030394911 0.0028037822 -0.00052429375 -0.0038605225 -0.00015118367 0.0016649949 -0.0013075632 0.0019824307 0.0008403715 -0.003578049 -0.00087437814 -0.0010952657 0.0038224307 0.0005635877 -0.0012699624 -0.0023715002 -0.0019267651 0.0037553343 0.002934345 0.0012567271 -0.0038641065 -0.0016846992 0.0038329114 0.00254701 0.0038211865 0.0014960185 -0.003683025
10 0.0036632547 0.0006082239 -0.002605985 -0.0012287893 -0.0007882325 -0.0015565362 -0.00048067796 -0.0001342425 0.0025054945 -0.00014291676 0.0012820662 0.0037388145 0.0002502801 0.00021938125 -0.0023553113 0.0020488442 -0.0026115312 0.00027584194 0.0032048235 -0.0019288684 -0.0025107102 -0.001866322 0.0016749981 -0.0006444428 -0.0013139603 0.00071199366 0.00015907608 0.0017339654 0.00019497979 0.00024040494 -0.0033348915 0.0020639948 -0.00037168904 -0.001179059 0.0027570345 -0.001841947 0.0017636546 -0.0028832331 0.00066584954 -0.0026010335 0.0008821381 -0.000362286 -0.000766791 0.0015184574 0.0012998438 2.1497926e-05 -0.001874219 -0.0025180732 -0.0024720489 -0.0017445713 0.00020999077 -0.0023944895 -0.0011470808 0.00038523704 -0.003617557 0.0023187897 0.002460641 0.0005478519 0.0033471526 0.0020230347 0.0023830899 -0.002077499 -0.0010280774 0.0013749375 -0.0035704486 -0.0017925107 -0.00095410395 0.0027731983 -0.00061810436 0.0023043617 -0.0029371874 -0.0019834654 0.0021375397 0.0031961857 0.0018606493 -0.00036001744 -0.000284383 -0.0035597992 0.0037192316 0.001269687 0.0012399475 0.0015188447 0.00027284073 -0.0014862535 0.003877543 0.002217171 0.0035935864 -0.0015803496 -0.0028220662 0.001768227 0.003194117 0.00374087 0.003578891 0.0036283147 -0.003380658 0.0013295021 -0.0020021459 -0.001224162 -0.0026614603 -0.0026080047 0.001366282 -0.0031232578 -0.0031611642 -0.00051093847 -0.0023191313 0.0034171918 -0.0004358108 -4.965414e-05 -0.0020660546 0.0018716815 0.0012534732 -0.0033715595 0.0017375639 9.973905e-06 -0.00034903223 -0.0010583615 0.00069409923 -0.0026443077 -0.0021903152 -0.0021569105 0.0010227564 0.0026332908 0.0018063864 0.0014588723 0.0011811493 -0.0012534629 0.002389546 0.0031589912
